<?xml version="1.0"?>
<opencv_storage>
<opencv_ml_svm>
  <format>3</format>
  <svmType>C_SVC</svmType>
  <kernel>
    <type>LINEAR</type></kernel>
  <C>1.</C>
  <term_criteria><iterations>1000</iterations></term_criteria>
  <var_count>3</var_count>
  <class_count>3</class_count>
  <class_labels type_id="opencv-matrix">
    <rows>3</rows>
    <cols>1</cols>
    <dt>i</dt>
    <data>
      1 2 3</data></class_labels>
  <sv_total>3</sv_total>
  <support_vectors>
    <_>
      -6.94130301e-01 -3.55191737e-01 1.40821889e-01</_>
    <_>
      -5.65421954e-03 -3.74411866e-02 1.34788267e-02</_>
    <_>
      -4.17716950e-02 -3.37294452e-02 8.24630931e-02</_></support_vectors>
  <uncompressed_sv_total>8</uncompressed_sv_total>
  <uncompressed_support_vectors>
    <_>
      10. 27. 46.</_>
    <_>
      9. 18. 31.</_>
    <_>
      8. 16. 18.</_>
    <_>
      15. 68. 17.</_>
    <_>
      11. 65. 38.</_>
    <_>
      4. 59. 32.</_>
    <_>
      4. 40. 49.</_>
    <_>
      8. 34. 68.</_></uncompressed_support_vectors>
  <decision_functions>
    <_>
      <sv_count>1</sv_count>
      <rho>-9.2231452680688850e+00</rho>
      <alpha>
        1.</alpha>
      <index>
        0</index></_>
    <_>
      <sv_count>1</sv_count>
      <rho>-1.4016738412253478e+00</rho>
      <alpha>
        1.</alpha>
      <index>
        1</index></_>
    <_>
      <sv_count>1</sv_count>
      <rho>-5.1830512543512641e-01</rho>
      <alpha>
        1.</alpha>
      <index>
        2</index></_></decision_functions></opencv_ml_svm>
</opencv_storage>
